digraph Tree {
node [shape=box] ;
0 [label="Ptot <= 144.0\nmse = 7.4153\nsamples = 7671\nvalue = 1.633"] ;
1 [label="Ptot <= 13.75\nmse = 6.5893\nsamples = 7670\nvalue = 1.6226"] ;
0 -> 1 [labeldistance=2.5, labelangle=45, headlabel="True"] ;
2 [label="Temp <= 11.45\nmse = 4.6186\nsamples = 7228\nvalue = 1.5131"] ;
1 -> 2 ;
3 [label="Temp <= -5.85\nmse = 4.6135\nsamples = 3919\nvalue = 1.7125"] ;
2 -> 3 ;
4 [label="(...)"] ;
3 -> 4 ;
655 [label="(...)"] ;
3 -> 655 ;
4416 [label="Ptot <= 1.95\nmse = 4.5217\nsamples = 3309\nvalue = 1.2769"] ;
2 -> 4416 ;
4417 [label="(...)"] ;
4416 -> 4417 ;
7710 [label="(...)"] ;
4416 -> 7710 ;
9127 [label="Ptot <= 13.85\nmse = 35.4143\nsamples = 442\nvalue = 3.413"] ;
1 -> 9127 ;
9128 [label="PE <= 4.95\nmse = 1310.7195\nsamples = 6\nvalue = 17.0232"] ;
9127 -> 9128 ;
9129 [label="(...)"] ;
9128 -> 9129 ;
9138 [label="(...)"] ;
9128 -> 9138 ;
9139 [label="Temp <= 8.35\nmse = 15.2801\nsamples = 436\nvalue = 3.2257"] ;
9127 -> 9139 ;
9140 [label="(...)"] ;
9139 -> 9140 ;
9317 [label="(...)"] ;
9139 -> 9317 ;
10006 [label="mse = -0.0\nsamples = 1\nvalue = 81.269"] ;
0 -> 10006 [labeldistance=2.5, labelangle=-45, headlabel="False"] ;
}